digraph Tree {
node [shape=box] ;
0 [label="X[0] <= 1.038\ngini = 0.79\nsamples = 310\nvalue = [22, 23, 16, 64, 88, 14, 83]"] ;
1 [label="X[2] <= 0.774\ngini = 0.692\nsamples = 196\nvalue = [22, 11, 16, 64, 0, 0, 83]"] ;
0 -> 1 [labeldistance=2.5, labelangle=45, headlabel="True"] ;
2 [label="X[1] <= -0.361\ngini = 0.555\nsamples = 132\nvalue = [22, 11, 16, 0, 0, 0, 83]"] ;
1 -> 2 ;
3 [label="X[0] <= 0.656\ngini = 0.126\nsamples = 59\nvalue = [0, 4, 0, 0, 0, 0, 55]"] ;
2 -> 3 ;
4 [label="gini = 0.0\nsamples = 55\nvalue = [0, 0, 0, 0, 0, 0, 55]"] ;
3 -> 4 ;
5 [label="gini = 0.0\nsamples = 4\nvalue = [0, 4, 0, 0, 0, 0, 0]"] ;
3 -> 5 ;
6 [label="X[2] <= -1.538\ngini = 0.705\nsamples = 73\nvalue = [22, 7, 16, 0, 0, 0, 28]"] ;
2 -> 6 ;
7 [label="X[3] <= -1.034\ngini = 0.488\nsamples = 26\nvalue = [0, 0, 11, 0, 0, 0, 15]"] ;
6 -> 7 ;
8 [label="gini = 0.0\nsamples = 8\nvalue = [0, 0, 8, 0, 0, 0, 0]"] ;
7 -> 8 ;
9 [label="X[0] <= -1.84\ngini = 0.278\nsamples = 18\nvalue = [0, 0, 3, 0, 0, 0, 15]"] ;
7 -> 9 ;
10 [label="X[0] <= -2.487\ngini = 0.49\nsamples = 7\nvalue = [0, 0, 3, 0, 0, 0, 4]"] ;
9 -> 10 ;
11 [label="gini = 0.0\nsamples = 3\nvalue = [0, 0, 0, 0, 0, 0, 3]"] ;
10 -> 11 ;
12 [label="X[3] <= -0.766\ngini = 0.375\nsamples = 4\nvalue = [0, 0, 3, 0, 0, 0, 1]"] ;
10 -> 12 ;
13 [label="gini = 0.0\nsamples = 1\nvalue = [0, 0, 0, 0, 0, 0, 1]"] ;
12 -> 13 ;
14 [label="gini = 0.0\nsamples = 3\nvalue = [0, 0, 3, 0, 0, 0, 0]"] ;
12 -> 14 ;
15 [label="gini = 0.0\nsamples = 11\nvalue = [0, 0, 0, 0, 0, 0, 11]"] ;
9 -> 15 ;
16 [label="X[0] <= -1.661\ngini = 0.671\nsamples = 47\nvalue = [22, 7, 5, 0, 0, 0, 13]"] ;
6 -> 16 ;
17 [label="X[1] <= -0.284\ngini = 0.595\nsamples = 25\nvalue = [10, 0, 3, 0, 0, 0, 12]"] ;
16 -> 17 ;
18 [label="gini = 0.0\nsamples = 5\nvalue = [5, 0, 0, 0, 0, 0, 0]"] ;
17 -> 18 ;
19 [label="X[3] <= -0.202\ngini = 0.555\nsamples = 20\nvalue = [5, 0, 3, 0, 0, 0, 12]"] ;
17 -> 19 ;
20 [label="X[2] <= -1.228\ngini = 0.653\nsamples = 12\nvalue = [5, 0, 3, 0, 0, 0, 4]"] ;
19 -> 20 ;
21 [label="gini = 0.0\nsamples = 3\nvalue = [0, 0, 0, 0, 0, 0, 3]"] ;
20 -> 21 ;
22 [label="X[1] <= -0.093\ngini = 0.568\nsamples = 9\nvalue = [5, 0, 3, 0, 0, 0, 1]"] ;
20 -> 22 ;
23 [label="X[2] <= -1.001\ngini = 0.278\nsamples = 6\nvalue = [5, 0, 1, 0, 0, 0, 0]"] ;
22 -> 23 ;
24 [label="gini = 0.0\nsamples = 1\nvalue = [0, 0, 1, 0, 0, 0, 0]"] ;
23 -> 24 ;
25 [label="gini = 0.0\nsamples = 5\nvalue = [5, 0, 0, 0, 0, 0, 0]"] ;
23 -> 25 ;
26 [label="X[1] <= 0.135\ngini = 0.444\nsamples = 3\nvalue = [0, 0, 2, 0, 0, 0, 1]"] ;
22 -> 26 ;
27 [label="gini = 0.0\nsamples = 2\nvalue = [0, 0, 2, 0, 0, 0, 0]"] ;
26 -> 27 ;
28 [label="gini = 0.0\nsamples = 1\nvalue = [0, 0, 0, 0, 0, 0, 1]"] ;
26 -> 28 ;
29 [label="gini = 0.0\nsamples = 8\nvalue = [0, 0, 0, 0, 0, 0, 8]"] ;
19 -> 29 ;
30 [label="X[3] <= -0.509\ngini = 0.591\nsamples = 22\nvalue = [12, 7, 2, 0, 0, 0, 1]"] ;
16 -> 30 ;
31 [label="X[1] <= -0.033\ngini = 0.403\nsamples = 12\nvalue = [9, 0, 2, 0, 0, 0, 1]"] ;
30 -> 31 ;
32 [label="gini = 0.0\nsamples = 7\nvalue = [7, 0, 0, 0, 0, 0, 0]"] ;
31 -> 32 ;
33 [label="X[3] <= -1.195\ngini = 0.64\nsamples = 5\nvalue = [2, 0, 2, 0, 0, 0, 1]"] ;
31 -> 33 ;
34 [label="gini = 0.0\nsamples = 2\nvalue = [2, 0, 0, 0, 0, 0, 0]"] ;
33 -> 34 ;
35 [label="X[1] <= 0.049\ngini = 0.444\nsamples = 3\nvalue = [0, 0, 2, 0, 0, 0, 1]"] ;
33 -> 35 ;
36 [label="gini = 0.0\nsamples = 1\nvalue = [0, 0, 1, 0, 0, 0, 0]"] ;
35 -> 36 ;
37 [label="X[2] <= -0.66\ngini = 0.5\nsamples = 2\nvalue = [0, 0, 1, 0, 0, 0, 1]"] ;
35 -> 37 ;
38 [label="gini = 0.0\nsamples = 1\nvalue = [0, 0, 0, 0, 0, 0, 1]"] ;
37 -> 38 ;
39 [label="gini = 0.0\nsamples = 1\nvalue = [0, 0, 1, 0, 0, 0, 0]"] ;
37 -> 39 ;
40 [label="X[2] <= -1.171\ngini = 0.42\nsamples = 10\nvalue = [3, 7, 0, 0, 0, 0, 0]"] ;
30 -> 40 ;
41 [label="gini = 0.0\nsamples = 2\nvalue = [2, 0, 0, 0, 0, 0, 0]"] ;
40 -> 41 ;
42 [label="X[0] <= -0.604\ngini = 0.219\nsamples = 8\nvalue = [1, 7, 0, 0, 0, 0, 0]"] ;
40 -> 42 ;
43 [label="X[2] <= -0.974\ngini = 0.444\nsamples = 3\nvalue = [1, 2, 0, 0, 0, 0, 0]"] ;
42 -> 43 ;
44 [label="gini = 0.0\nsamples = 1\nvalue = [1, 0, 0, 0, 0, 0, 0]"] ;
43 -> 44 ;
45 [label="gini = 0.0\nsamples = 2\nvalue = [0, 2, 0, 0, 0, 0, 0]"] ;
43 -> 45 ;
46 [label="gini = 0.0\nsamples = 5\nvalue = [0, 5, 0, 0, 0, 0, 0]"] ;
42 -> 46 ;
47 [label="gini = 0.0\nsamples = 64\nvalue = [0, 0, 0, 64, 0, 0, 0]"] ;
1 -> 47 ;
48 [label="X[1] <= -0.631\ngini = 0.378\nsamples = 114\nvalue = [0, 12, 0, 0, 88, 14, 0]"] ;
0 -> 48 [labeldistance=2.5, labelangle=-45, headlabel="False"] ;
49 [label="X[0] <= 4.829\ngini = 0.507\nsamples = 23\nvalue = [0, 8, 0, 0, 1, 14, 0]"] ;
48 -> 49 ;
50 [label="X[2] <= -0.255\ngini = 0.198\nsamples = 9\nvalue = [0, 8, 0, 0, 1, 0, 0]"] ;
49 -> 50 ;
51 [label="gini = 0.0\nsamples = 8\nvalue = [0, 8, 0, 0, 0, 0, 0]"] ;
50 -> 51 ;
52 [label="gini = 0.0\nsamples = 1\nvalue = [0, 0, 0, 0, 1, 0, 0]"] ;
50 -> 52 ;
53 [label="gini = 0.0\nsamples = 14\nvalue = [0, 0, 0, 0, 0, 14, 0]"] ;
49 -> 53 ;
54 [label="X[2] <= -0.424\ngini = 0.084\nsamples = 91\nvalue = [0, 4, 0, 0, 87, 0, 0]"] ;
48 -> 54 ;
55 [label="X[3] <= 1.758\ngini = 0.32\nsamples = 5\nvalue = [0, 4, 0, 0, 1, 0, 0]"] ;
54 -> 55 ;
56 [label="gini = 0.0\nsamples = 4\nvalue = [0, 4, 0, 0, 0, 0, 0]"] ;
55 -> 56 ;
57 [label="gini = 0.0\nsamples = 1\nvalue = [0, 0, 0, 0, 1, 0, 0]"] ;
55 -> 57 ;
58 [label="gini = 0.0\nsamples = 86\nvalue = [0, 0, 0, 0, 86, 0, 0]"] ;
54 -> 58 ;
}
