digraph Tree {
node [shape=box] ;
0 [label="X[0] <= 1.038\ngini = 0.79\nsamples = 310\nvalue = [22, 23, 16, 64, 88, 14, 83]"] ;
1 [label="X[1] <= -0.361\ngini = 0.692\nsamples = 196\nvalue = [22, 11, 16, 64, 0, 0, 83]"] ;
0 -> 1 [labeldistance=2.5, labelangle=45, headlabel="True"] ;
2 [label="X[0] <= 0.656\ngini = 0.126\nsamples = 59\nvalue = [0, 4, 0, 0, 0, 0, 55]"] ;
1 -> 2 ;
3 [label="gini = 0.0\nsamples = 55\nvalue = [0, 0, 0, 0, 0, 0, 55]"] ;
2 -> 3 ;
4 [label="gini = 0.0\nsamples = 4\nvalue = [0, 4, 0, 0, 0, 0, 0]"] ;
2 -> 4 ;
5 [label="X[0] <= -2.44\ngini = 0.698\nsamples = 137\nvalue = [22, 7, 16, 64, 0, 0, 28]"] ;
1 -> 5 ;
6 [label="X[1] <= -0.074\ngini = 0.342\nsamples = 60\nvalue = [1, 0, 4, 48, 0, 0, 7]"] ;
5 -> 6 ;
7 [label="X[1] <= -0.134\ngini = 0.627\nsamples = 13\nvalue = [1, 0, 3, 2, 0, 0, 7]"] ;
6 -> 7 ;
8 [label="X[1] <= -0.2\ngini = 0.219\nsamples = 8\nvalue = [0, 0, 0, 1, 0, 0, 7]"] ;
7 -> 8 ;
9 [label="gini = 0.0\nsamples = 5\nvalue = [0, 0, 0, 0, 0, 0, 5]"] ;
8 -> 9 ;
10 [label="X[0] <= -2.599\ngini = 0.444\nsamples = 3\nvalue = [0, 0, 0, 1, 0, 0, 2]"] ;
8 -> 10 ;
11 [label="gini = 0.0\nsamples = 2\nvalue = [0, 0, 0, 0, 0, 0, 2]"] ;
10 -> 11 ;
12 [label="gini = 0.0\nsamples = 1\nvalue = [0, 0, 0, 1, 0, 0, 0]"] ;
10 -> 12 ;
13 [label="X[1] <= -0.131\ngini = 0.56\nsamples = 5\nvalue = [1, 0, 3, 1, 0, 0, 0]"] ;
7 -> 13 ;
14 [label="gini = 0.0\nsamples = 1\nvalue = [0, 0, 0, 1, 0, 0, 0]"] ;
13 -> 14 ;
15 [label="X[0] <= -2.561\ngini = 0.375\nsamples = 4\nvalue = [1, 0, 3, 0, 0, 0, 0]"] ;
13 -> 15 ;
16 [label="gini = 0.0\nsamples = 2\nvalue = [0, 0, 2, 0, 0, 0, 0]"] ;
15 -> 16 ;
17 [label="X[1] <= -0.114\ngini = 0.5\nsamples = 2\nvalue = [1, 0, 1, 0, 0, 0, 0]"] ;
15 -> 17 ;
18 [label="gini = 0.0\nsamples = 1\nvalue = [0, 0, 1, 0, 0, 0, 0]"] ;
17 -> 18 ;
19 [label="gini = 0.0\nsamples = 1\nvalue = [1, 0, 0, 0, 0, 0, 0]"] ;
17 -> 19 ;
20 [label="X[0] <= -2.457\ngini = 0.042\nsamples = 47\nvalue = [0, 0, 1, 46, 0, 0, 0]"] ;
6 -> 20 ;
21 [label="gini = 0.0\nsamples = 44\nvalue = [0, 0, 0, 44, 0, 0, 0]"] ;
20 -> 21 ;
22 [label="X[0] <= -2.449\ngini = 0.444\nsamples = 3\nvalue = [0, 0, 1, 2, 0, 0, 0]"] ;
20 -> 22 ;
23 [label="gini = 0.0\nsamples = 1\nvalue = [0, 0, 1, 0, 0, 0, 0]"] ;
22 -> 23 ;
24 [label="gini = 0.0\nsamples = 2\nvalue = [0, 0, 0, 2, 0, 0, 0]"] ;
22 -> 24 ;
25 [label="X[1] <= 0.062\ngini = 0.776\nsamples = 77\nvalue = [21, 7, 12, 16, 0, 0, 21]"] ;
5 -> 25 ;
26 [label="X[1] <= -0.065\ngini = 0.715\nsamples = 45\nvalue = [20, 4, 8, 4, 0, 0, 9]"] ;
25 -> 26 ;
27 [label="X[0] <= -2.404\ngini = 0.647\nsamples = 31\nvalue = [16, 3, 1, 3, 0, 0, 8]"] ;
26 -> 27 ;
28 [label="X[1] <= -0.323\ngini = 0.444\nsamples = 3\nvalue = [0, 0, 1, 0, 0, 0, 2]"] ;
27 -> 28 ;
29 [label="gini = 0.0\nsamples = 1\nvalue = [0, 0, 1, 0, 0, 0, 0]"] ;
28 -> 29 ;
30 [label="gini = 0.0\nsamples = 2\nvalue = [0, 0, 0, 0, 0, 0, 2]"] ;
28 -> 30 ;
31 [label="X[0] <= -2.201\ngini = 0.605\nsamples = 28\nvalue = [16, 3, 0, 3, 0, 0, 6]"] ;
27 -> 31 ;
32 [label="gini = 0.0\nsamples = 8\nvalue = [8, 0, 0, 0, 0, 0, 0]"] ;
31 -> 32 ;
33 [label="X[0] <= -1.345\ngini = 0.705\nsamples = 20\nvalue = [8, 3, 0, 3, 0, 0, 6]"] ;
31 -> 33 ;
34 [label="X[1] <= -0.198\ngini = 0.568\nsamples = 9\nvalue = [1, 0, 0, 3, 0, 0, 5]"] ;
33 -> 34 ;
35 [label="X[1] <= -0.26\ngini = 0.48\nsamples = 5\nvalue = [0, 0, 0, 3, 0, 0, 2]"] ;
34 -> 35 ;
36 [label="gini = 0.0\nsamples = 1\nvalue = [0, 0, 0, 0, 0, 0, 1]"] ;
35 -> 36 ;
37 [label="X[1] <= -0.248\ngini = 0.375\nsamples = 4\nvalue = [0, 0, 0, 3, 0, 0, 1]"] ;
35 -> 37 ;
38 [label="gini = 0.0\nsamples = 2\nvalue = [0, 0, 0, 2, 0, 0, 0]"] ;
37 -> 38 ;
39 [label="X[0] <= -1.478\ngini = 0.5\nsamples = 2\nvalue = [0, 0, 0, 1, 0, 0, 1]"] ;
37 -> 39 ;
40 [label="gini = 0.0\nsamples = 1\nvalue = [0, 0, 0, 1, 0, 0, 0]"] ;
39 -> 40 ;
41 [label="gini = 0.0\nsamples = 1\nvalue = [0, 0, 0, 0, 0, 0, 1]"] ;
39 -> 41 ;
42 [label="X[1] <= -0.121\ngini = 0.375\nsamples = 4\nvalue = [1, 0, 0, 0, 0, 0, 3]"] ;
34 -> 42 ;
43 [label="X[1] <= -0.17\ngini = 0.5\nsamples = 2\nvalue = [1, 0, 0, 0, 0, 0, 1]"] ;
42 -> 43 ;
44 [label="gini = 0.0\nsamples = 1\nvalue = [0, 0, 0, 0, 0, 0, 1]"] ;
43 -> 44 ;
45 [label="gini = 0.0\nsamples = 1\nvalue = [1, 0, 0, 0, 0, 0, 0]"] ;
43 -> 45 ;
46 [label="gini = 0.0\nsamples = 2\nvalue = [0, 0, 0, 0, 0, 0, 2]"] ;
42 -> 46 ;
47 [label="X[1] <= -0.318\ngini = 0.512\nsamples = 11\nvalue = [7, 3, 0, 0, 0, 0, 1]"] ;
33 -> 47 ;
48 [label="X[1] <= -0.334\ngini = 0.5\nsamples = 2\nvalue = [0, 1, 0, 0, 0, 0, 1]"] ;
47 -> 48 ;
49 [label="gini = 0.0\nsamples = 1\nvalue = [0, 1, 0, 0, 0, 0, 0]"] ;
48 -> 49 ;
50 [label="gini = 0.0\nsamples = 1\nvalue = [0, 0, 0, 0, 0, 0, 1]"] ;
48 -> 50 ;
51 [label="X[0] <= -1.259\ngini = 0.346\nsamples = 9\nvalue = [7, 2, 0, 0, 0, 0, 0]"] ;
47 -> 51 ;
52 [label="gini = 0.0\nsamples = 1\nvalue = [0, 1, 0, 0, 0, 0, 0]"] ;
51 -> 52 ;
53 [label="X[0] <= -0.279\ngini = 0.219\nsamples = 8\nvalue = [7, 1, 0, 0, 0, 0, 0]"] ;
51 -> 53 ;
54 [label="gini = 0.0\nsamples = 6\nvalue = [6, 0, 0, 0, 0, 0, 0]"] ;
53 -> 54 ;
55 [label="X[1] <= -0.221\ngini = 0.5\nsamples = 2\nvalue = [1, 1, 0, 0, 0, 0, 0]"] ;
53 -> 55 ;
56 [label="gini = 0.0\nsamples = 1\nvalue = [0, 1, 0, 0, 0, 0, 0]"] ;
55 -> 56 ;
57 [label="gini = 0.0\nsamples = 1\nvalue = [1, 0, 0, 0, 0, 0, 0]"] ;
55 -> 57 ;
58 [label="X[0] <= -1.745\ngini = 0.653\nsamples = 14\nvalue = [4, 1, 7, 1, 0, 0, 1]"] ;
26 -> 58 ;
59 [label="X[0] <= -2.028\ngini = 0.245\nsamples = 7\nvalue = [0, 0, 6, 1, 0, 0, 0]"] ;
58 -> 59 ;
60 [label="gini = 0.0\nsamples = 5\nvalue = [0, 0, 5, 0, 0, 0, 0]"] ;
59 -> 60 ;
61 [label="X[0] <= -1.961\ngini = 0.5\nsamples = 2\nvalue = [0, 0, 1, 1, 0, 0, 0]"] ;
59 -> 61 ;
62 [label="gini = 0.0\nsamples = 1\nvalue = [0, 0, 0, 1, 0, 0, 0]"] ;
61 -> 62 ;
63 [label="gini = 0.0\nsamples = 1\nvalue = [0, 0, 1, 0, 0, 0, 0]"] ;
61 -> 63 ;
64 [label="X[0] <= -1.309\ngini = 0.612\nsamples = 7\nvalue = [4, 1, 1, 0, 0, 0, 1]"] ;
58 -> 64 ;
65 [label="gini = 0.0\nsamples = 1\nvalue = [0, 0, 0, 0, 0, 0, 1]"] ;
64 -> 65 ;
66 [label="X[0] <= 0.392\ngini = 0.5\nsamples = 6\nvalue = [4, 1, 1, 0, 0, 0, 0]"] ;
64 -> 66 ;
67 [label="X[1] <= -0.025\ngini = 0.32\nsamples = 5\nvalue = [4, 1, 0, 0, 0, 0, 0]"] ;
66 -> 67 ;
68 [label="X[1] <= -0.057\ngini = 0.5\nsamples = 2\nvalue = [1, 1, 0, 0, 0, 0, 0]"] ;
67 -> 68 ;
69 [label="gini = 0.0\nsamples = 1\nvalue = [1, 0, 0, 0, 0, 0, 0]"] ;
68 -> 69 ;
70 [label="gini = 0.0\nsamples = 1\nvalue = [0, 1, 0, 0, 0, 0, 0]"] ;
68 -> 70 ;
71 [label="gini = 0.0\nsamples = 3\nvalue = [3, 0, 0, 0, 0, 0, 0]"] ;
67 -> 71 ;
72 [label="gini = 0.0\nsamples = 1\nvalue = [0, 0, 1, 0, 0, 0, 0]"] ;
66 -> 72 ;
73 [label="X[0] <= -1.963\ngini = 0.693\nsamples = 32\nvalue = [1, 3, 4, 12, 0, 0, 12]"] ;
25 -> 73 ;
74 [label="X[0] <= -2.433\ngini = 0.477\nsamples = 16\nvalue = [0, 0, 3, 11, 0, 0, 2]"] ;
73 -> 74 ;
75 [label="gini = 0.0\nsamples = 1\nvalue = [0, 0, 0, 0, 0, 0, 1]"] ;
74 -> 75 ;
76 [label="X[0] <= -2.148\ngini = 0.418\nsamples = 15\nvalue = [0, 0, 3, 11, 0, 0, 1]"] ;
74 -> 76 ;
77 [label="gini = 0.0\nsamples = 7\nvalue = [0, 0, 0, 7, 0, 0, 0]"] ;
76 -> 77 ;
78 [label="X[0] <= -2.065\ngini = 0.594\nsamples = 8\nvalue = [0, 0, 3, 4, 0, 0, 1]"] ;
76 -> 78 ;
79 [label="X[0] <= -2.107\ngini = 0.444\nsamples = 3\nvalue = [0, 0, 2, 0, 0, 0, 1]"] ;
78 -> 79 ;
80 [label="gini = 0.0\nsamples = 2\nvalue = [0, 0, 2, 0, 0, 0, 0]"] ;
79 -> 80 ;
81 [label="gini = 0.0\nsamples = 1\nvalue = [0, 0, 0, 0, 0, 0, 1]"] ;
79 -> 81 ;
82 [label="X[1] <= 0.189\ngini = 0.32\nsamples = 5\nvalue = [0, 0, 1, 4, 0, 0, 0]"] ;
78 -> 82 ;
83 [label="gini = 0.0\nsamples = 1\nvalue = [0, 0, 1, 0, 0, 0, 0]"] ;
82 -> 83 ;
84 [label="gini = 0.0\nsamples = 4\nvalue = [0, 0, 0, 4, 0, 0, 0]"] ;
82 -> 84 ;
85 [label="X[0] <= -0.045\ngini = 0.562\nsamples = 16\nvalue = [1, 3, 1, 1, 0, 0, 10]"] ;
73 -> 85 ;
86 [label="X[1] <= 0.09\ngini = 0.469\nsamples = 14\nvalue = [1, 1, 1, 1, 0, 0, 10]"] ;
85 -> 86 ;
87 [label="gini = 0.0\nsamples = 1\nvalue = [0, 1, 0, 0, 0, 0, 0]"] ;
86 -> 87 ;
88 [label="X[1] <= 0.269\ngini = 0.391\nsamples = 13\nvalue = [1, 0, 1, 1, 0, 0, 10]"] ;
86 -> 88 ;
89 [label="X[1] <= 0.223\ngini = 0.612\nsamples = 7\nvalue = [1, 0, 1, 1, 0, 0, 4]"] ;
88 -> 89 ;
90 [label="X[1] <= 0.135\ngini = 0.32\nsamples = 5\nvalue = [1, 0, 0, 0, 0, 0, 4]"] ;
89 -> 90 ;
91 [label="gini = 0.0\nsamples = 3\nvalue = [0, 0, 0, 0, 0, 0, 3]"] ;
90 -> 91 ;
92 [label="X[0] <= -0.454\ngini = 0.5\nsamples = 2\nvalue = [1, 0, 0, 0, 0, 0, 1]"] ;
90 -> 92 ;
93 [label="gini = 0.0\nsamples = 1\nvalue = [1, 0, 0, 0, 0, 0, 0]"] ;
92 -> 93 ;
94 [label="gini = 0.0\nsamples = 1\nvalue = [0, 0, 0, 0, 0, 0, 1]"] ;
92 -> 94 ;
95 [label="X[1] <= 0.243\ngini = 0.5\nsamples = 2\nvalue = [0, 0, 1, 1, 0, 0, 0]"] ;
89 -> 95 ;
96 [label="gini = 0.0\nsamples = 1\nvalue = [0, 0, 0, 1, 0, 0, 0]"] ;
95 -> 96 ;
97 [label="gini = 0.0\nsamples = 1\nvalue = [0, 0, 1, 0, 0, 0, 0]"] ;
95 -> 97 ;
98 [label="gini = 0.0\nsamples = 6\nvalue = [0, 0, 0, 0, 0, 0, 6]"] ;
88 -> 98 ;
99 [label="gini = 0.0\nsamples = 2\nvalue = [0, 2, 0, 0, 0, 0, 0]"] ;
85 -> 99 ;
100 [label="X[1] <= -0.631\ngini = 0.378\nsamples = 114\nvalue = [0, 12, 0, 0, 88, 14, 0]"] ;
0 -> 100 [labeldistance=2.5, labelangle=-45, headlabel="False"] ;
101 [label="X[1] <= -1.023\ngini = 0.507\nsamples = 23\nvalue = [0, 8, 0, 0, 1, 14, 0]"] ;
100 -> 101 ;
102 [label="gini = 0.0\nsamples = 14\nvalue = [0, 0, 0, 0, 0, 14, 0]"] ;
101 -> 102 ;
103 [label="X[0] <= 2.125\ngini = 0.198\nsamples = 9\nvalue = [0, 8, 0, 0, 1, 0, 0]"] ;
101 -> 103 ;
104 [label="X[0] <= 1.968\ngini = 0.444\nsamples = 3\nvalue = [0, 2, 0, 0, 1, 0, 0]"] ;
103 -> 104 ;
105 [label="gini = 0.0\nsamples = 2\nvalue = [0, 2, 0, 0, 0, 0, 0]"] ;
104 -> 105 ;
106 [label="gini = 0.0\nsamples = 1\nvalue = [0, 0, 0, 0, 1, 0, 0]"] ;
104 -> 106 ;
107 [label="gini = 0.0\nsamples = 6\nvalue = [0, 6, 0, 0, 0, 0, 0]"] ;
103 -> 107 ;
108 [label="X[0] <= 3.471\ngini = 0.084\nsamples = 91\nvalue = [0, 4, 0, 0, 87, 0, 0]"] ;
100 -> 108 ;
109 [label="X[0] <= 1.378\ngini = 0.044\nsamples = 89\nvalue = [0, 2, 0, 0, 87, 0, 0]"] ;
108 -> 109 ;
110 [label="X[0] <= 1.347\ngini = 0.219\nsamples = 16\nvalue = [0, 2, 0, 0, 14, 0, 0]"] ;
109 -> 110 ;
111 [label="X[1] <= -0.356\ngini = 0.124\nsamples = 15\nvalue = [0, 1, 0, 0, 14, 0, 0]"] ;
110 -> 111 ;
112 [label="X[1] <= -0.426\ngini = 0.5\nsamples = 2\nvalue = [0, 1, 0, 0, 1, 0, 0]"] ;
111 -> 112 ;
113 [label="gini = 0.0\nsamples = 1\nvalue = [0, 0, 0, 0, 1, 0, 0]"] ;
112 -> 113 ;
114 [label="gini = 0.0\nsamples = 1\nvalue = [0, 1, 0, 0, 0, 0, 0]"] ;
112 -> 114 ;
115 [label="gini = 0.0\nsamples = 13\nvalue = [0, 0, 0, 0, 13, 0, 0]"] ;
111 -> 115 ;
116 [label="gini = 0.0\nsamples = 1\nvalue = [0, 1, 0, 0, 0, 0, 0]"] ;
110 -> 116 ;
117 [label="gini = 0.0\nsamples = 73\nvalue = [0, 0, 0, 0, 73, 0, 0]"] ;
109 -> 117 ;
118 [label="gini = 0.0\nsamples = 2\nvalue = [0, 2, 0, 0, 0, 0, 0]"] ;
108 -> 118 ;
}
